solver_type L1R_LR
nr_class 5
label 1 2 3 4 5
nr_feature 384
bias -1
w
0 0 -0.02975784411111818 0 0 
-0.3306875472097687 0 -0.06406160696643813 0 0.2553112036510797 
0 0 -0.06591679222770803 0 0 
0 0 0 0 0 
0 0 0 0 0 
0 0 0 0 0 
0 0 0 0 0 
0 0 0 0 0 
0 0 0 0 0 
0.1194103082931326 0 0 0 0 
0 0 0 0 0.06405070930438062 
0 0 0 0 0 
0 0 0 0 0 
0 0 0 0 -0.01670270516770891 
0 0 -0.1886230281277257 0 0.006592018019742922 
0 0 0 0 0 
-0.002322676904136826 0 0 0 0 
-0.06523624377514953 0 0 0.2332794306236814 0 
0 0 0 0 0 
-0.008548406863942704 0 0 0 0 
0 0 0 0 0 
0 0 0 0 0 
0 -0.002821286343870129 0.0673989840158034 0 -0.02547094068435662 
0 0 0 0 0 
0 -0.1353064841808307 0 0.102302050553585 0.04632960095395026 
-0.02634239365276327 0 0 0 0.09150385174606453 
0 -0.02442573558984812 0 0 0 
0 -0.01909300828384948 0 0 0 
0 0 0 0 0 
-0.4284790381318436 0 0 0 0 
0 0 0 0 0 
0 0 0 0 0 
0 0 0 0 -0.0516412629339669 
0 0 0 0 0 
0 0 0 0 0.03845189800506253 
0 0 0 0 0 
0 0 0 0 0 
0 0 0 0 0 
0 -0.1321392800795627 0.1553551764504092 0 0 
0 -0.02544281653287305 0.1791017391581129 -0.0545149029098575 0 
0 -0.007629852881875699 0 0 0 
0 0 0.1453019402833662 0 0 
-0.1462389799156636 0 0.04092244143460293 0 0 
0 0 0 0 -0.08064734524311 
0 -0.001190327224021087 0 0.01861193197462452 0 
0 0 0 0 0 
0 0.02106232953205261 -0.05720551100541577 -0.08514436654091503 0.04536576850579029 
0.004735064635079939 0 0.00761694276228833 0 0 
0 0 0 0 0 
-0.06005911879874741 0 0 0.05724789596886649 0 
0 0 0 0 0 
0 -0.05234024191501218 0 0 0 
0.2252056577134593 -0.09811934285332007 -0.02945519713411778 0 0 
0 0 0 0.05215815570746078 -0.07115501955786376 
0 0 0 0 -0.03738138551300253 
0 0 0 0 0 
0 0 0 0 0 
0 0 0 0 0 
0 0 0 0 0 
0 0 0 0 0 
0 0.0009814181986361175 0 0 0 
-0.1301221465026222 0 0 0 0 
0 0 0 0 -0.118379048643587 
0 0 0 0 0 
0 -0.07657033914225773 0 0 0 
0 0 0 0 0 
0 0 0 0.02277052915999937 0 
0 0 0 0 0 
0 0 0.01253835351596009 0 0 
0 0 0 0 0 
0 0 0 0 0 
0 0 0 0 0 
0.2687515149618691 -0.007352798824525038 -0.2160762844662036 0.006070757681244552 0 
0 0 -0.004378991050298184 0 0.01942317818262783 
0 0 0 0 0 
0 0 -0.002479761362478581 -0.006813373707022172 0 
0 0 0 -0.01494524225781211 0 
0 0 -0.04150644418075475 0 0.006592725570100099 
0 0 -0.04074607681550111 0 0 
0 -0.122164499259291 0 0 0.03038380176137538 
0 0 0 0 0 
0 0 0 0 0 
0 0 0 0 0 
0 0.01881571829264625 0 0 0 
0.09344178334797372 0 -0.08978154145615568 0 0 
0 0 0 0.0005233924987069181 0 
0.0857182184097145 0 0 0 0 
0 0 0 0 0 
0 0 0.007113426816454316 0 0 
0 0.02825314913974742 -0.3601232792904411 0.02413940528571434 0 
0 0.04086820595182194 -0.01559159449254523 0 0 
0.004237331267470709 0 0 0 0 
0 0 0 0 -0.1425667594960596 
0 0 0 0 0 
0 0 -0.003180629369330848 0 0.004162723586669257 
0 0 0 0 0 
0 0 0 0 0 
0 0 0 0 0 
0 0 0 0 0 
0 -0.01093057166034248 0 0 0 
0.01321986877674249 0 0 0 -0.05433689343022815 
-0.01186846811247714 0.01093628613331492 -0.0948593908689849 0.04539960551195024 0 
0 0 0 0 0.06056323531088131 
0 0 0 0.1482305317167153 0 
0.08558377320677256 0 0 0 -0.1708521284547847 
0 0 0 0 0 
0 0 0 0 0 
0 -0.06617912171773856 0 0 0 
0 0 0 0.005955320608801155 0 
0 0 0 0 -0.04755482989206343 
0 0 0 0 0 
0 0 0 0 0 
0 -0.03775258690414392 0 0 0.01754732539263339 
0 0 0 0.03692243301481739 -0.009660799865709445 
0 0 0 0 0 
0 0 0 0.002460839930491042 0 
0.06818647310166435 0 -0.1805136582894836 0 0 
0 0 0 0 0 
0 -0.06005316635814936 0 0 0 
0 0 0 0 0 
0 0 0 0 0 
0 0 0 0 0 
0 0 0 0 0 
0 0 0 0 0 
0 0 0.06595293982342969 0 0 
0 0 0 0 0 
-0.02026960130882624 0 0 0 0.03202029211221238 
0 0 0 0 0 
0 0 0 0 0 
0 0 0 0 0 
0 0 -0.02861913999970893 0 0 
0 0 0 0 0 
0 0 0 0 0 
0 0 -0.09694030729616802 0.03118564106958586 0.1235439834928522 
0 0 0 0 0 
0 0 0 -0.02994111157970945 0 
0 0.07075219974491266 -0.0002847759682517983 0 0 
0 0 -0.08711816468437286 0 0 
0 -0.02501902804700016 0 0 0.1084521104653454 
0 0.08807066590619937 -0.09832457987416929 0 0 
0 0 0 0 0 
0 0 0 0 0 
0 -0.1369863657862578 0 0 0.03542793597646882 
0 0 0 0 0 
0 0 0 0 -0.01296175649369437 
0 0 0 0.01304168900695498 0 
0 0 0 0 0 
0 0 0 0 0 
0 0 0 0 0 
-0.04607579239427169 0 0.2134532753252445 0 0 
0 0 0 0 0 
-0.03796742921945934 0 0 0 0 
0 0 0 0 0 
0 0.02208234801414121 0 0 0 
0 0 0 0 0 
0 0 0 0 0 
0 0 0 0 0 
0 0 0 0 0 
0 0 0 0 0 
0 0.05391276629895601 0 0 0 
0 0.07863383500080927 0 0 0 
0.1337694486145454 0 0 0 0 
0 0 0 0 -0.03636122098083048 
0 0 0 0 0 
0 0 0 0 0 
0 0 0 0 0 
0 0 0 0 0.00557496439483874 
0 -0.09319991354999288 0 0 0 
0 0 0 0 0 
0.01381603337092492 0 -0.0755286027130844 0 0 
0 0 0 0 0 
0 0 0 0 -0.03559573571469241 
0 0 0 0 0 
0 0 0 0 0 
0 -0.03485695830886123 0 0 0 
0 0 0 0 0 
0 0 0 0 -0.04461271204075665 
0 0 0 0 -0.0486117735540748 
-0.04359163281143673 0 0 0 0 
0 0 0 -0.0005513731522417176 0.001028391485297229 
0 0 0 0 0 
0 0 0 0 0 
0 0 0 0 0 
0 0 0.01659106792576168 0 0 
0.06120264993589133 0 0 0 0 
0 0 0 0 0 
0.1735784984072904 0 -0.01206807088936304 0 0 
0 0 0 0 -0.04887395981818871 
0 0 0 0 -0.04724346456486582 
0 0 0 0 0 
0 0 0 -0.01815322319876795 0 
0 0 0 0 0 
0 0.1127751639915791 -0.09419072672528586 0 0 
0 0 0 0 0 
0 0 0 0 0 
0 0.1708580091129099 0 -0.0565947874326871 0 
0 0 0 0 0 
0 0 0 0 0 
0 0 0 0 0.05103793133257 
0.04454922371904744 0 0 0 0 
0 0 0 0 0 
0 0 0 0 0 
-0.022405453450765 0.02812658270174309 0 0 -0.02087703943404844 
0 0.04447872881442291 0 0 0 
-0.03002072648379969 0 0 0 0 
0 0 0 0 0 
0 0 0 0 0 
0 0 0 0 0.005610599290487898 
0 0 0 0 0 
0 0 0 0 0 
0 0 0 0 0 
0 0 0 0 0 
0 0 0 0.3002456595313049 0 
0 -0.2211300480262431 0 0 0 
0 0 0 0 0 
0 0.05810849346108148 0 -0.0882833449730254 0.03693511152791396 
0 0 0 0 0 
0 0.0372571839063815 0 0 0 
0 0 0 0 0 
0 0 0 0 0 
0 0 -0.0663625564474611 0 0 
0 0.09112957125367109 0 0 -0.007882696603151126 
0 0 0 -0.004331625042329128 0 
0 0 0 0.01125921157115011 0 
0 0 0 0 0 
0 0 0 0 0 
0 0 0 0.02096734582604468 0 
0 0 0 0 0.1751569384549053 
0.03011489815753432 0 0 -0.08581639338289204 0 
0 0 0 0 0.02958486957695147 
0 0 0 -0.04032054646190453 0 
0 -0.002649744156401245 0 0 0 
0 0 0 0 0 
0 0 0 0 0 
0 0 0.1210388025185224 0 -0.03076940746869338 
0 0 0 0 0 
0.09373627700482871 0 0 0 0 
0 0 0 0 0 
0.005321845605348675 -0.06125796115104741 0 0 0 
0 0.2637330463409749 0 0 0 
0 0 0.02844904043103412 0 0 
0 0 0 0 0 
0 0 0 0 0 
0 0 -0.116768785645647 0 0.01884605703303648 
0 0 0 0 0 
0 0.04207839261380433 0 0 0 
0 0 0.08235468294316184 0 0 
0.04210207636078978 0 0 0.04575103720055287 -0.0516488063637315 
0 -0.05813808723437908 0 0 0 
0 0 0 0 0 
0 0 0 0.1080717679515767 -0.1511477619477401 
0 0 0 0 0 
0 0 0 0 0 
0 0 0 0 0 
0 0 0 0 0 
0 0 0 0 0 
0 0 -0.09858006367498295 0 0.01212666864161361 
0 0.08732904174155773 0 0 0 
0 0 0 0 0 
0 0 0 0 0 
0.01599957079739055 0 0 0 0 
0.01210659573075172 0 0 0 0 
0 0.03363320417716671 0 0 0 
0 0 0 0 0 
0.04351802924656505 0 0 0 0 
0 0 0 0 0 
0 0 -0.0469828813217174 0 0 
0 0.1284487071301095 0 -0.04534116479951255 0 
0 -0.1407600254559249 0.04209297001979428 0 0 
0 0 -0.01871456741478498 -0.006004917476272163 0 
-0.03075652680145007 0 0 0 0 
0 0 -0.05812041646114188 -0.03375391794039933 0.01231851574407931 
0 0 0 0 0 
0 0 0 0 0 
0 0 0 0 0 
0 0 0 0 0 
0 0 0 0 -0.001647008177416379 
0 0 0 0 0 
0 0 0 0 0 
0 0 0 0 0 
0 -0.01412115113233286 0.03364980599803439 0 0 
0 0 0 0 0 
-0.1101743442587548 0 0.1731225268907061 -0.004535963664031181 0 
0.1053105157552813 0 0 0 0 
0.1720943796712116 0 0 0 0 
0 0 0 0 0 
0 0 0 0 -0.05873419752973279 
0 0 0 0 0 
0.001420680382276526 0 0 0 -0.03753222379756784 
0 0 0 0 0 
0 0 0 0 0 
0 -0.02988357724094251 0 0 0 
0 -0.03838818760707136 0 0.06439579744694444 0 
0 0 0.01335134943635729 0 0 
0 0 0 0 0 
-0.01094373424094184 0 0 0 0 
0.01949213154411185 0 0 0 0 
0.001299335864150213 0 0 0 0 
0 0 0 0 0 
0 0.06109418293054037 0 -0.006902895616729529 0 
0 0 0 0 0 
0 0 -0.07380987974133843 0 0 
0 0 0 0 0 
0 0 0 0 0 
0 -0.03073256074562531 0 0 0 
0 0 0.01247497098954987 0 0 
0 0 0 -0.04886351109167686 0.03907753843665641 
0 0 0 0 0 
0.04416563760467659 -0.0360857838950439 0 0 0 
0 -0.002638272192764537 0 0 0 
0.01712104861208062 0 -0.07358188030134924 0 0 
0 0 0 0 -0.07118471907212617 
0 0 0 0 0 
-0.01455529343323766 0.02791571207042365 0 0 0 
0 0 0 0 0 
0 0 0 0 -0.04167165786572206 
0 0 0 0 0 
0 0 0 0 0 
0 0 0 0 0 
0 0 0 0 0 
0.00140157857745644 0 0 0 0 
0 -0.1821031205778879 0.1700288786626492 0 0 
0 0 0 0 0 
0 0 0 0 0 
0 0 0 0 -0.001662149868217487 
0 0 0 0 0 
0 0 0 0 0 
0 0 0 0 0 
0.05815098874554792 0 0 0 0 
0 0 0.07589184420395466 0 0 
-0.0106170157736605 0 0 -0.004183394808588644 0 
0 0 0 0 0 
0 0 0 0 0 
0 0 0 0 0 
0 0 0.0397431169073843 0 0 
0 0 0 0 0 
0 0 0 0 -0.02937457919088679 
-0.09153840861996755 0.03286273035397368 0 0 0 
0 0 0 0 0 
0 0 0 0 0 
0.03454257713215354 0 0 0 0 
0 0 0 0 0 
0 0.03506019903360667 -0.02299641339480044 0 0 
0 -0.03251803542235902 0 0 0 
0.2015558482363184 0 0 0 0 
0 0 0 0 0 
0 0 0.01907354797365385 0 -0.07637508526865992 
0 0 0 0 0 
0 0 0 0 0 
0 0 0 0 0 
0 0 0 0 0 
0 0 0 0 0 
-0.02228384963892473 0 0 0 0.006577659807618144 
0 0 0 0 0 
0 0 -0.1365943472421217 0 0 
0 0 0 0 0 
0 -0.01123663217375211 0.03805759746602688 0 0 
0 0 0 0 0 
0 0.003746109669187835 0 0 -0.07616295454098497 
0 0 0 0 0 
0 0 0.09023791186463584 0 0 
0 0 0 0 0 
0 0 0.01768068676174038 0 0 
0 0 0.03321149744858357 0 0 
0 0 0 0 0 
0 -0.05998673927053032 0 0 0 
0 0 0 0 0 
0 0 0 0 0 
0 0 0 0 0 
0 0 0 0 0 
0 0 0 0 0 
-0.04691273293557681 0.175407470888009 0 0 0 
0 0 0 0 0 
0 0 0 0 0 
0 0 0 0 0 
0 0 0 0 0 
0 0 0 -0.05617659181374678 0 
0.3338805248613854 0 0 0 0 
0 0 -0.05071136851137785 0 0.06687237134757433 
0 0 0 0 0 
0 0 0 0 0 
0 0 0 0 0 
0 0 0 0 0 
0 0 0 0 0 
