solver_type L2R_L2LOSS_SVC_DUAL
nr_class 5
label 1 2 3 4 5
nr_feature 384
bias -1
w
1.311542331190013e-06 -2.427790590435126e-05 -1.923885866421046e-05 -2.086611341396459e-05 5.398232137451677e-05 
-3.118642332711563e-07 -1.498949852441302e-08 -2.863251409861646e-07 -2.497339963309817e-09 6.973643998540884e-07 
1.623409576028602e-06 -2.426292870985855e-05 -1.895253035904661e-05 -2.086361430578809e-05 5.328496672821437e-05 
0.002573868424698181 -0.02953185071057486 -0.0009649395212805597 0.01753521188053121 0.006843110452966502 
0.0002617525198708925 0.004321899699981697 -0.001362151920159875 -0.003723318793025113 0.0002095476772828642 
1.017591769741247e-06 -4.414090388763278e-06 -2.940273549984034e-06 -3.577214309764894e-07 6.056554318667847e-06 
5.351088413318424e-10 -1.672969469582355e-07 3.975334287737768e-08 -3.355644097572513e-08 2.396071931550533e-07 
1.323171338027512e-06 4.236403012161482e-06 -5.657843756504397e-06 -1.083397716184294e-07 7.162417980056665e-07 
6.417428679173744e-08 -7.026249557901715e-07 -6.012757933710948e-08 -9.649855047362281e-09 5.998710141247448e-07 
2.624438018060076e-06 -1.100871738257544e-05 -3.12260204647355e-06 -3.194774842957167e-06 1.549879915132773e-05 
-0.001067385337292663 -0.0007429478301584701 -0.0005588386372872774 -0.001278804313309045 0.002392525165857117 
-0.009392263548320295 -0.006881931435010956 -0.003342676343072471 -0.005622731164092872 0.01306298385828416 
-0.001370843929680111 -0.01195672263995188 -0.003808430999515277 0.01051692186634219 0.004956122698054836 
0.001421959457772478 0.006794635988845874 0.002847739400065749 0.008085042646988524 -0.02040657057726825 
-0.00279279397480267 -0.01875133885452567 -0.006656168569994433 0.002431881143080739 0.02536267049829986 
0.0002869157492425156 -0.004927394305944915 -0.0009956264458872532 0.004618372414857089 0.008780673584494527 
-0.001650923440443454 -0.01168496215335952 0.003136432317203692 -0.009694723002357703 0.00553325190082649 
-0.002809533557205518 0.003790443428115125 -0.002805764610052823 0.01094575089855749 -0.007291448923588684 
-8.734909988838295e-05 8.67696711551552e-05 -1.302465908487983e-05 0.0001112157143875207 -0.0004769645925587855 
0.00101144632596469 -8.76476349753261e-05 -0.002089949238947585 0.006703257917848295 0.01147366229595677 
-0.01108855713601989 -0.001634412228699746 -0.009453968239927567 0.0139187148370603 0.005722687699765959 
-0.001094875854090517 -0.006975709402660364 -0.001931218238858127 0.001430346595675721 0.009055405784816123 
-0.0003158789773336723 -0.001220585436374905 0.0004544799323985552 2.63433312760682e-05 -0.0009389875035260112 
-0.001044737270186843 0.0052524512748593 -0.0009130121014092045 -0.0006755727089916566 0.001169883219416574 
-0.002687564158713223 -0.01845342896979595 -0.003854752391677592 0.006084734418274998 0.019631702998516 
-0.004136352686523119 -0.004956109376888632 -0.004920686819840229 0.004750646405807671 0.007941509504374649 
0.001448791611983346 -0.01349731852851115 0.001065932478852587 0.001334082534445521 0.0116902096155558 
0.004280179345524608 0.001841344466092137 0.001507794039840793 -0.004284268912055639 -0.002094033851392407 
-0.005339469622950259 0.002509143953455931 -0.006450648400314274 -0.004284654588419068 0.001742585627603252 
0.000411703669805996 -0.0142020719239739 -0.00148461577012411 0.005680486260496839 0.005729904882306642 
4.88062859332303e-05 -5.550990133469727e-05 2.74637734765901e-05 2.983479958742035e-05 -6.315046059791188e-05 
-0.002409208096700394 -0.01124291792823674 -0.003318695100034732 0.00378842354556163 0.01314104992232922 
-0.0008965770318260183 -0.001370119192281132 -8.530680804066912e-05 0.005063850889022617 0.0003120678369159649 
-0.00175293955233099 -0.0003893873909769524 -2.130987253236886e-06 0.0007940584735207274 0.003413757115323915 
-0.0006213026735473861 0.001348515801154105 -0.0004457929707780381 -0.0001824713989857594 0.00161107858816593 
-0.0001359930213875595 0.002622277800016547 -0.0002668158643559314 0.0002976130034130724 -0.001225630455883887 
0.0007486196826501485 0.007093144947588196 -0.001083924582520159 -0.002739463941518306 0.005152285211306282 
-0.001102441631523637 -0.003947703960185815 -0.0007650470993588927 -0.004008732292488952 0.009978586200392997 
0.001851066155951418 0.01104086281942358 -0.0003188842679414893 0.001269264903959126 -0.004826307078576196 
0.001334097423121916 -0.0004442586338633734 -0.0003177483320601635 -0.01052058553551812 0.00698433773448639 
0.0009675758956041552 -0.006132979886906221 -0.003024397586806824 -0.009338766634277944 0.01523802149214238 
0.004160641234482498 0.0005301815798883812 0.0008744986824962143 -0.0002256743943554949 -0.008510028648892038 
1.66940048917896e-05 -0.0001949068555707427 3.700844360187878e-05 -6.635140839298232e-05 0.000178616555879691 
0.003772143114449737 0.01258341915265798 -0.001592160405063185 0.002595684737092829 -0.01983745595125674 
-0.004243350273487111 -0.02462808775026911 -0.001186050584442252 0.007762596000507655 0.01258926307819966 
-0.00202056526578699 0.004638898853264802 -0.0007791674729281121 0.0005559155428727265 -0.0001210328120873758 
-0.0007735101626025038 0.004215462693956911 -0.0002886946192998366 -0.00097655696376109 0.0006212655767632987 
0.0005113798396284927 0.003243174642631572 -2.72369736360558e-05 -0.0001854277965074817 -0.001256541876324824 
-0.005659552627878954 -0.001272712482886813 0.0005511621868263941 0.01313210687337526 -0.01266693540170818 
-0.003825095287669452 0.0009324829085317542 0.002706528174820411 0.01358577731924106 -0.02291235262870758 
-0.00183445488395011 -0.002205217473511125 -0.002155364914392337 -0.0004536775883245028 0.01024544172566902 
-0.002883036496597383 -0.001905663296733728 -0.002244098833043116 0.0002636459792190197 0.005824004331428808 
-0.003594798235345056 -0.0007830053258134159 -0.0006639319352315339 0.007044736645093227 -0.001079495839649317 
-0.0009894296116089035 -0.000962213282050097 0.002527329443732471 0.008644818915464307 -0.01385919867407971 
-7.989068739908406e-05 0.0002806761413414954 5.347099702195217e-06 8.179747651129368e-05 -0.0002961947588709241 
0.003505280944843195 -0.0107101391464108 0.002107159725771458 0.004405275128103365 -0.002177703112125355 
0.01284415340351831 -0.011509352094436 0.001548083050320894 -0.002943107230353963 0.004106200806465158 
0.0008484522589878064 -0.001227492823330418 -0.0006686430539813941 0.0002398852432790777 0.0001363615708711943 
-0.0006258279690083449 -0.0001669244729589738 -0.0002103876080716467 0.0009560885789283093 -0.0006230844661926111 
-0.0004819322497109718 0.004328006535214446 -0.0005069251541136677 -0.001744877064963257 0.002831227207375328 
-0.01247114334446112 0.0157861931412395 0.00111253986805832 0.01001839913879223 -0.01646465190725876 
-0.01152098617840097 -0.0100801526277232 0.004253091594042508 0.005673233782211288 0.001172758142120973 
-0.0009501600273689294 0.02586638387992247 -0.003140548183853462 0.004345166109163091 -0.0176374332161338 
0.001768616783672995 -0.002888907356321971 0.002344588288989224 0.002401543159895281 0.001264759462555291 
0.004492514565887954 -0.01657903217569153 -0.0002785932367285836 0.003786650819016011 0.004740519291892486 
-0.009219291031936113 -0.003174526132965359 0.002352222994179862 0.005763491782881715 0.003968693677822673 
-8.914602011646426e-05 -1.567303825353322e-05 -4.459135389324739e-05 0.0001063853943847401 0.0001976464685649836 
-0.00518265334436704 -0.002006959333942113 0.00512401590422128 0.0001847562958752798 -0.006210102838614015 
0.0006014284305820893 -0.005445527118301096 0.008573009665502963 0.005588401653947148 -0.01684706251065638 
-0.001533268270709136 0.002731059636748955 -0.0003935830102169381 0.0003969858801918119 0.001338355363329693 
-0.0007564708731475835 0.0002390913444135502 -3.885921946891291e-05 0.0002642145816419791 -0.002008474565250152 
0.0001749213883210668 0.0064738520914991 -0.0007125741441104099 0.000259811501637063 -0.00283611541706874 
-0.0008499273069620533 -0.005904925534429731 -0.00910538735422315 -0.0005982433366498239 0.008769521074865637 
0.003026629668652077 -0.005531843661920004 -0.008277237513686303 -4.003344997408731e-05 0.01336167052778578 
-0.003876556567388568 -0.0003730775511728638 -0.0008281502495396553 -0.0005582071624480164 -0.004592134412039846 
-0.002163567461927642 0.006358671286573561 -0.003087980229086002 0.001331368257809007 0.0001249544694551458 
-0.004892186779352597 -0.003320165746019401 -0.002931917161273857 -0.006723536763006438 0.01096885764877721 
-0.003291884416957727 0.002064794285059731 -0.005780524909037651 0.001439904828286974 0.01433169903442503 
-6.831559716950055e-05 0.000286786626473567 1.766021125511962e-05 -1.334272269564594e-06 -0.0002902171977352826 
0.001474004608094861 -0.01853225803681472 -0.00646805197191788 0.001635917621709945 0.03180437850845405 
0.01072240151914789 -0.01222262391021104 0.003846665534897367 0.01125317546898124 -0.003347865540536637 
-0.001239196100961725 -0.001019143688553361 -0.0002467886810226942 0.0007457446198390474 0.00220536268232431 
0.000970809292682442 -0.001182241031563345 -0.0005763693753661238 -0.0001574748800139865 -0.001222599634497218 
-0.001855214417154118 0.006487558825666378 -0.0008192565158937929 -0.000542604594320278 -0.004097547955967443 
0.007320087860839823 0.01634962838397007 -0.01513828228597254 0.00765879377619228 0.004981675732058283 
0.003651431058474779 0.007643757239568911 -0.01506467046748028 0.008348888078268935 0.01376714088663959 
0.003668660498400913 0.008705862840579346 -7.361475810577289e-05 -0.0006900968567649262 -0.008785437105056424 
0.00073900926851601 0.002408344517069387 -0.004001888295982981 0.0009086199519897974 0.006398528960029721 
-0.001366380088353373 0.003496392638683786 0.002827554419260966 -0.004755024259945772 0.002925699201096031 
0.006634756228375681 0.002094721591866448 -0.01073668466153178 0.00828502017459384 0.01021368663418271 
0.0001284642574232766 9.92028888467276e-05 -4.61015239573529e-05 -1.638798639183101e-05 0.0002950577412180249 
0.0006780125279649636 -0.003010085083212474 -0.008337794900021256 0.009249869561820771 -0.003682503330549664 
0.003867402616094443 0.008078222121689529 0.009210340968001699 -0.01533661593543791 -0.008255253238199761 
0.0009551955926539116 -0.004761510851936565 0.0005360711480878186 -0.001224224246181945 0.005420240282802633 
-0.0003880583566174549 0.003138752626981769 -0.0008172098485990682 0.0002708541523489962 -0.001829573784525131 
-0.0002045426431460852 0.008364651563443676 -0.0005296100004041331 0.000699575770293771 -0.005796506124975859 
-0.01054457727189368 -0.005796743667832785 -0.007210866580238948 0.009297213877491821 0.01726422537545966 
-0.007564691638507885 0.000428085861612262 -0.006549178456440628 0.006113933962008046 0.01333473918056032 
-0.00297987762676271 -0.006224811245679977 -0.0006616879683845697 0.003183275425589675 0.003929474479561916 
0.0007696599946220652 -0.00106562153835567 0.0007314859682189019 0.006640339497879575 -0.008030611841746369 
-0.005069769571191024 0.01076698297576098 0.001868970001599244 0.00545756526523525 -0.01090154564967296 
-0.007360230103646232 0.008997096673156275 -0.005345996070116372 0.005276538382020084 0.006516922052765522 
3.071819774682233e-05 -0.0001908032445009533 -2.47937067576077e-05 -2.860687119820767e-06 0.0001353685865643881 
-0.00973863440505972 0.01903416256439782 -0.003357047130452873 0.005797184251640219 -0.001285629943728561 
-0.003322448897610809 0.006721150250960621 0.002536682994357811 -0.005159169885252124 0.001112547793895497 
-0.001665015553840088 0.005122449336897781 -2.674675881917422e-05 -0.0005771360287612871 -0.001952904766408917 
0.0001445369972075379 -0.0005376523940493001 -0.0002800780516082628 0.0001323746427329844 0.0004893338544592606 
-0.0003832427252513906 -0.003521947066149188 -0.0004368573905900177 0.001173206207991864 0.002477444657530907 
-0.001109076629056596 -0.002867165133490627 0.00317381051451783 0.008090618156921541 -0.02811176826303843 
0.00233767758609727 -0.003429762643759819 0.006247111654120114 0.0128098995477948 -0.03735942809722275 
-0.003446750780173995 0.0005626070751966286 -0.003073304881064433 -0.004719281778505451 0.009247665536501741 
0.001100285964286256 -0.003225089350497068 0.001640381155515845 -0.003903509965323685 -0.001687505596392183 
-0.0002807553527540121 -0.009301722322814608 -0.001590119372424575 7.409249449875867e-05 0.001331620814376314 
-0.0009448387244733132 -0.0001823776609708659 0.00581027514559861 0.008076582810148341 -0.02421157810844521 
-9.339752532771582e-05 0.0001902415002450006 4.11194931385726e-05 -6.369224254143141e-05 0.0001952118814266946 
0.00358024445572299 -0.009536463706991427 0.004162032602245467 0.01195990630550816 -0.03528493607730986 
-0.00314312327958166 -0.01112439488550561 -0.001549081236949983 0.003896535572842038 -0.01003017634232474 
-0.002158965600640479 0.00168439536804347 -0.001196105818517762 -0.000507920316570288 0.001702435255011408 
0.0002089437443596683 -0.002373643582201386 -4.534351472610408e-05 0.0007614455597581848 0.001084060742947237 
-7.912314752536155e-05 0.0006314581964337261 -0.0009440835106346351 0.0009288175197649764 0.001015087342740605 
-0.005204190254786184 0.008654053648246691 -0.0001955006803008179 -0.001800255279665377 -0.006927516863965866 
-0.007780565014434976 0.006428675983790075 -0.00152423152523229 0.003742554481661169 -0.004798225815467856 
0.002576375667215905 0.002225401815907218 0.001328742658745537 -0.005542817326740558 -0.002129357710225927 
-0.0002059421541092969 0.008524574740357274 -0.003028750374948214 -0.003741170015437829 -0.006248317869167736 
-0.003759472195959809 0.002441702661465938 0.0005084630235032094 -0.003702301567773629 -0.002554258042938728 
-0.004675350438669747 -0.006059797522152228 0.001232557804047323 -0.0006121714799504211 0.002301401236271461 
3.267528744879968e-05 -0.0003059218409823591 2.810578184027015e-05 -7.755307287631488e-05 9.447326790323231e-05 
-0.006378788357990558 0.01501363390892611 -0.0001627647121066819 0.002140931827627724 -0.001140681663164798 
-0.005884689521714519 -0.02900109319816131 0.004521044064410052 -0.007471474683759149 0.02302161886977028 
-0.001496786030872864 0.002621988897590466 -2.267808743472577e-05 -0.001871628778590282 0.003139516355219996 
-0.000387979984295429 0.0003058283651429289 -0.0005110338113937194 2.718188607695466e-05 0.0004566796398100422 
0.000452067708451004 0.0009140827349181951 8.121090469339349e-05 0.0001112335081545334 -0.002610565714739293 
0.0009074481621777932 0.001230769083635878 -0.003841469725918597 0.00891804215726062 0.00666987039771093 
-0.002713811983539495 -0.02326152812819175 -0.003289782421596731 0.009857544575009076 0.02814208185487907 
0.003621269903318493 0.02449230839422011 -0.0005516889451037383 -0.0009395042066924829 -0.02147222831050227 
-0.006695636518097425 0.003057222778560553 0.0006729708843692274 -0.005223101818254886 0.002635785353889567 
0.0005601086785468741 0.004689901037305213 0.0009740420729888332 -0.006143471249001099 -0.004177074950722502 
0.00100743845078257 0.003198829358059091 -0.001063989021301564 0.008100086402928119 -0.002931753261963957 
-9.664247796880225e-05 -0.0001412298125091733 3.090988762910422e-05 5.875188757074628e-05 0.0001943365790736786 
0.006234376875884209 0.01040408792133428 -0.002632766131658593 0.005665809976175548 -0.01460656911453327 
-0.002730778669754187 0.009940452935796063 -0.002045933366962808 0.005178828886479058 -0.01147923472890178 
-0.0005598547027698638 0.003248769843972365 -0.0004588800884498183 0.0002822272617833495 -0.001785489268032021 
-0.0007348415273515532 -0.003802589084594298 -0.0005292320786815728 0.0003580899306385066 0.005606214760421689 
0.001011796301368368 0.006023160180000197 -4.474678840507761e-05 -0.0003908677823491555 -0.005726068502877795 
-0.005790487642199805 -0.0124324065992095 -0.001554635898904863 0.0004394830106789679 0.009073110560220844 
-0.005725682105080111 0.001892458244184161 -0.0001495110663093664 -0.001563414316067635 0.009062962632778766 
-6.480784016632597e-05 -0.0143248755691164 -0.00140512545236194 0.00200289470332529 1.015689987383451e-05 
0.001267351900359834 0.004332935891493231 -0.001947807604147052 -0.00622821282532023 -0.004987111681098191 
-0.01534541637683115 0.002290666194150664 -0.0003478569223960796 -0.00215050025846711 0.002077755697001571 
-0.002907536569892397 -0.007594866743785633 -0.0005582099704065031 -0.001599652010606377 0.01136317832272599 
8.092311395178906e-05 5.833209040945175e-05 -1.250023905036158e-05 -5.621647502143165e-05 0.0002338840260073829 
-0.006458475247151624 -0.01259555932787706 0.0004216222827508243 0.0008640080838088093 0.00197792565654075 
-0.002738111340851921 -0.001218979944678778 0.004629411629635366 0.003477847059286444 -0.01840091721194552 
-0.0001447701014091096 0.002174685525602136 -0.0002392110178311503 0.0007065686399946209 -0.002845886931931705 
-0.0005633328886165976 -0.0004986963706148212 7.755531760771474e-05 0.0005438733284117229 -0.000259745348882417 
-0.0007558017595445192 0.001676568051212068 -0.001325218389052635 -0.0005710872300833396 0.0007774970383218366 
0.0002026750725484876 -0.0003319319783312382 8.804866567944819e-05 -0.0003386895352073729 0.00046766551264301 
-8.943495824131693e-06 -2.262084419778249e-06 4.21773616771211e-06 -1.306904381334446e-05 1.240787680714934e-05 
0.0002116186311613072 -0.000329669667129773 8.383090408949641e-05 -0.0003256205321524474 0.0004552577552602633 
0.005837714037998337 0.003095447972400812 -0.005613499740318001 0.0008277856227821639 -0.01522232566947784 
-0.001836174465667331 0.003501968114942015 -0.003306155077566092 0.001301136366968746 -0.001710760879380357 
7.083191705700672e-05 -0.0001007804033492343 5.641163922783235e-05 -0.0001395452730049643 0.0001328447088495747 
2.060613007117639e-06 -1.90632785049042e-07 -1.483335782180838e-07 -4.349015542052354e-07 2.995315572608055e-06 
-2.074645012279455e-05 -0.0001943644353234133 5.968605206135677e-05 -0.0001437859157040566 0.0001621478225071707 
2.457253728511387e-05 5.285514370670013e-06 1.524545437335969e-05 -2.657065226459344e-05 8.607413969267254e-06 
9.064395983161617e-05 -9.937845793651461e-05 3.333658992629712e-05 -0.0001320859619681077 0.0001984592256582032 
-0.0009515675543654698 6.612246437829342e-05 -0.0006624208694693176 0.001591488024513256 -0.0003922226625201916 
-0.003860247117635921 -0.006466257107858401 -0.002088867991718701 0.007030054873009501 -0.002922329315995743 
-0.0002214172042777099 0.0004623054761262433 -3.310455817714855e-05 -2.431715985391945e-05 -6.44220405379466e-05 
-9.510904958985163e-05 7.821512278079155e-05 -3.666167314312792e-05 4.710604495749613e-05 2.221064644206706e-05 
-0.0001263080296924191 0.000384090433264299 3.557107728584937e-06 -7.142315696866435e-05 -8.663295274287347e-05 
-0.0004053849161811269 -0.01436030669612469 -0.001039747261787802 0.006280790113781942 -0.0008371300027159265 
-0.002196481194666482 0.003925467026440569 -0.001360364058741401 -0.003749154616203444 0.002982004238567327 
-0.0001444394480022194 0.0002676656654507547 -6.112058668938625e-05 5.6505860877326e-05 -9.810793801695265e-05 
-5.086233516980412e-07 -2.752663011097608e-06 8.60519727911431e-07 6.983251149752436e-07 -7.80435057593943e-07 
-0.0001321145369223006 0.0004320490570861763 -0.0001075535016333207 2.068984706664694e-05 -8.079811678417431e-05 
-5.273265661120399e-06 2.174682595115123e-05 5.337580610046837e-06 7.290960886347014e-06 -2.466999701824695e-05 
-5.151759289303235e-05 0.0001674426284265265 9.913287626077804e-06 3.656146335171546e-05 -0.0001266513572199267 
-0.0001998399807807609 0.001083723716113752 -0.0001033662215640757 -0.0009212554625122508 0.001780740588669751 
-0.0009110588039923296 0.006116647843520538 -0.001791310709215874 -0.004338243106440532 0.003881232829551665 
-0.002671744570926377 0.004427428789206694 0.001899807334287286 -0.002100582034552772 -0.0008274807044944094 
0 0 0 0 0 
-0.002671744570926377 0.004427428789206694 0.001899807334287286 -0.002100582034552772 -0.0008274807044944094 
-0.002164571308700571 0.007476785461233615 0.004435247098522725 -0.0008049214347341489 -0.01164312268967804 
0.0002350221273736368 9.435855011575501e-05 -0.0006303179969885506 -9.415967894114363e-06 6.28450394842781e-05 
-0.001624765316133462 -0.011884479486213 -0.002179543332687818 -0.0005699727317610735 0.009711951084937389 
2.713251452082313e-05 -0.0002634555491301135 -5.523101123315286e-05 -9.90621674979509e-05 0.000248065826799602 
-0.005057410127844458 0.001039730726333597 0.002415237491479152 0.00882534848797448 -0.005795589905379699 
0.0001332645748664976 0.0001735129928335423 -0.0001013168197289267 -7.922916069115615e-05 0.0004296579150132278 
-0.004632221226264133 -0.006338852362327792 0.004737977980900784 0.003575857236843252 0.004071578801871552 
0.0001160016608001286 0.0009092889853696956 -0.0002337719656993465 -0.00127976948101949 0.002065891411356918 
-0.001232555022279088 -5.355590913796727e-06 -0.006145310664243024 -0.00548796518225427 0.01795250171009852 
-1.700659136249518e-06 -1.055542478869005e-05 -4.921774857885441e-06 -2.810434437576354e-06 1.383008227008241e-05 
1.245044008246102e-06 1.408334267407368e-05 3.470608222710544e-06 4.229999736547472e-06 -2.369233087221321e-05 
-2.945706330069311e-06 -2.463880243579353e-05 -8.392380860191224e-06 -7.040432332608394e-06 3.752242874451178e-05 
0.0007498842916348233 0.007382446872759004 0.001186168671381282 -0.008881436579330281 0.003942308180300406 
-0.001557259355798077 0.02123248175259487 -0.002171267425386527 -0.009029177001796342 -0.002445306756416333 
2.946590270372854e-08 -9.80652383072548e-08 5.604899411678188e-09 -8.817121984933246e-09 6.104793510539191e-08 
5.519012189965644e-10 1.183107759325282e-08 1.295635981472315e-09 1.24101577013845e-10 -2.863126021118956e-09 
6.737579789905546e-08 -5.61852705131167e-07 -5.873098655763399e-08 -4.56174274655145e-08 1.205645986306233e-07 
-4.833025529920738e-10 -3.799453921400429e-08 -4.814565092624783e-09 -8.388305338161652e-13 4.002548067062634e-08 
-1.672900585002826e-07 -3.684374874505243e-06 -8.678040036494118e-07 -8.508750638967364e-07 5.146944778182538e-06 
8.782803451840478e-05 0.00202383399058351 -0.0006378470887676554 0.001484411160079944 -0.003363050682272438 
-0.005678771163463848 0.01239888960087977 -0.006461298658662512 -0.0009997907098768233 -0.005488835909321248 
-0.0009283482809531516 -0.0004918546737358049 -0.001497300313249524 0.001547695168661668 -0.001781374688073891 
0.001357703500354616 0.00258906980895912 0.0007346893234495431 -0.001904849761456749 0.002916517702031739 
-0.002286051326211291 -0.003080908355918629 -0.002231987814656872 0.003452539968924654 -0.004697904629355321 
-0.004566484307087857 -0.01063479302261718 0.004786508308334087 0.003373660064991472 0.001207735019807907 
-0.003275055770972019 0.000258770396064277 -0.0004696984187928007 0.003682177621567219 -0.0003117961825570063 
-0.0001529402620632078 0.000173173931214608 3.054798310094524e-05 1.943739529946601e-05 -0.0001311426379668895 
1.864191667343049e-06 -4.145133752670183e-05 1.270069126881513e-06 -8.444907827668365e-06 3.167437853566235e-05 
-0.0003402185497391332 0.002191145262511338 -4.643669410120636e-05 0.0004505085911791649 -0.001691550044550679 
-0.001785300989364431 -0.01063875740235141 -0.0004001004150520964 0.004393369252015203 0.002353899999070283 
-0.00068967878162912 -0.002185372381790643 -0.0002199160384600309 0.001210125784753329 0.0002773769598123507 
0.0006121100119794804 -2.962889496358314e-06 -0.000401365985549396 9.578466642721227e-05 0.0009557569860978785 
0.001670589135728772 0.008076291594570833 -0.00262787104762465 -0.001952520169277422 -0.002707518974021859 
-0.001286118260652934 -0.008499852503522518 -0.0001475195013758318 0.003332987737654735 0.00602323235800249 
-0.0007806642672073385 -0.0009569835962924134 -0.0003546266033851346 0.001313286276659096 -0.0007529518301564095 
-0.0005054525994681761 -0.007542867775841997 0.0002071068654673879 0.002019702070459714 0.006776182676465654 
-0.003152864859820564 0.00752166037831137 0.00954643582195951 -0.00837621640984634 -0.008230562440595243 
0.008996290621522856 0.002713381487484548 -0.008084038669979775 0.004125084804968525 0.00113390283266348 
1.073499315007991e-05 0.0002039995027179863 -2.228102092428289e-05 -2.223889277547305e-05 -0.0003053726350668675 
-4.588191144550458e-06 9.844389151178903e-06 -4.98555260285808e-07 -6.69195728034797e-06 -1.241542125371037e-06 
0.0002275907031443496 -0.0001839898974446791 -8.105179949197793e-06 0.0003291138202088 -0.0002812338185900622 
0.0004310922013859516 -0.002910365643858076 0.0006003237434793766 0.001088310317683987 0.0003016683605116007 
-3.76206155396793e-05 -0.0005368968234689773 0.000115069039741328 0.000500177239230693 2.254854883412097e-05 
-0.0004276312740538442 -0.003813927783041333 -0.0001494854719054518 0.001488769029184243 0.00239862140939659 
-0.001689631525473341 -0.001337165174720098 -0.001131689843453483 -0.0008491304086190327 0.00540936410639302 
0.0001141614249744862 -0.003998932872155574 0.0004454924358972264 -0.001620066526237619 0.006263426442409439 
0.0001714416984634167 -0.005334988651422096 0.0009940212231486665 0.001165809591005552 0.0008976990484712558 
-5.728247953239837e-05 0.001336062553102735 -0.0005485281076434752 -0.002785875611417265 0.005365718075145519 
0.0008808390991980109 -0.006868294117858205 0.007902768960222475 0.005699971803616847 -0.0176210663064909 
0.0007584391221136452 -0.008550995989691144 -0.003032906795464837 0.002362481338142462 0.006149624447876741 
-5.748652032840404e-05 0.000131837519105466 3.121542204190667e-05 -2.277492112290013e-05 -6.736894202080493e-05 
-1.559457982392556e-06 -1.149638920567384e-05 4.012504351475567e-06 1.346251738348846e-07 3.783941163884092e-06 
2.536561850524802e-05 0.001081991476187455 -0.0001773752940488398 -6.672441037171505e-05 -0.000621486557547938 
0.0001571735124331478 -0.006560000568916558 0.0005015821410849756 -0.0001948490278793444 0.004457456256548136 
-0.0001451118161060455 -0.001414771210949434 1.710264234855549e-05 -3.455667333929754e-05 0.001327991483750492 
0.0006782158917823019 -0.004394188560279387 0.0006821662694483087 -0.0002501026089107889 0.001752114913106791 
-0.0009886496213056691 0.01541784483024284 -0.001297362919057136 -0.00231319463876619 -0.004793623700649815 
0.0002997256481447884 -0.006378371823460629 -0.0001426370905624453 0.002480813650219674 0.002782666989188051 
0.000406440683274638 0.009716746599230065 0.001257006941651541 5.489292241935696e-05 -0.008051934191148533 
-0.0001067115663092468 -0.01609510867289551 -0.001399644376488609 0.002425920645158533 0.01083458859816623 
-0.001706246068218217 -0.006587535761714269 -0.002905018944313064 0.00326228053061193 -0.0001878424858919795 
0.005640614130035723 0.002736082926906122 0.005272161743758123 -0.001306507364929923 -0.002430096175301151 
-0.0001502996246907683 0.00081041553901693 -9.451454508228793e-06 6.485715201637092e-06 -0.0004944025299814491 
2.472052976456624e-06 -7.988414259396914e-06 9.59563370667139e-07 3.11681896387973e-07 -7.289031637721319e-06 
-0.0002425274200124608 0.001452455398791782 -6.332319107243219e-05 0.0001432661518039841 -0.0004427813102380149 
0.0008294695011117302 -0.005723339639127793 -0.0001356633956845126 0.0009184823115378632 0.003509360921927822 
3.046259072865673e-05 -0.001218983324942089 -0.0002120567347704824 0.000357822566629698 0.001005064096112986 
0.0004741032069183584 0.001515414833086052 0.0003812077683362069 0.001334685964360526 -0.002456991209818529 
-0.001358422477881027 -0.007060230459108792 -0.001531336349137693 5.441990371033387e-05 0.005692360269950275 
0.001291715062903031 -0.0004108607756751821 -0.00215859534064096 -0.0004585930968600012 0.008933715592558809 
-0.000886319181804273 -0.000731005617654898 -0.001024980206504378 -0.003352457340257793 0.001535918912875662 
0.002178036656283967 0.0003201548081945191 -0.001133616010198381 0.002893862690099712 0.007397791853433584 
0.006974378226645114 0.003526293817187712 -0.007170337785537633 0.005375914458068888 0.00610671599731416 
-0.00239269216375466 0.006029459497392504 -0.008300871825526537 -0.003426587230573702 -0.001483882531861653 
-7.170185585246373e-05 -0.0001696646690068605 -2.441897385707052e-05 -1.839661906634917e-05 0.0002941216144435823 
-1.075269902625575e-06 2.065396105008973e-05 4.579402734003328e-07 -2.857424393119526e-06 -2.427862822192917e-05 
-8.067575943943759e-05 -0.001264858074074009 -9.899323004194471e-05 0.0001936267705721378 0.001711847697609062 
0.0009565650421363117 -0.008787257053281032 0.0006369340677378898 0.002384188684937251 0.004977955200460409 
-0.0001155801534297908 -0.001221987529679275 -5.528082502698484e-05 0.0008018806454990056 0.0008410353965275371 
0.0005205331959335455 -0.0002002778638303176 -0.0008444040046224309 -0.0009643148046696666 0.002083575579371304 
0.0006733547204333176 0.01008130355228472 -0.00113331725686381 -0.0007069150341559566 0.002424535262927209 
0.001848443814655725 -0.006214372629890182 0.0001625952452029061 0.0007534920148455691 0.001074741555049982 
-0.002305172825222906 0.007193952968949119 -0.0001178697715861923 -0.000147100842964541 -0.0006630633634199574 
0.004153618569276074 -0.01340831946477438 0.0002804655381731226 0.0009005910572461602 0.001737805298627945 
-0.003547804045639323 0.01533876098353401 -0.003507651620040018 -0.006667436751222226 -0.00663757033300263 
-0.005391074010876781 -0.007113647678971927 0.005705696765299432 -0.0007619141538901566 -0.001341872235194133 
-1.671135898326958e-05 -0.0001392486891117609 2.881220846518582e-05 -0.0001591372942079183 9.969304973935982e-05 
-6.797527670834871e-06 -1.889751415852063e-05 1.257579776742192e-06 9.102097267341756e-06 -7.153938444856909e-07 
0.0002718940145243866 0.0007886884278148309 -8.745835372374512e-05 -0.0006292551087476488 0.0003234656529665152 
0.001080500925358728 -0.006004281756076274 0.0009063215418811359 -0.0001342358369271953 0.003229238716308562 
-1.654278436368311e-05 -0.001215052558504211 7.968993377074674e-05 8.248055130325989e-05 0.0009362154287584594 
7.72934662957513e-05 0.001565663178411261 -0.0003708547072957452 0.0004753076532688618 -0.0004612445188314433 
0.001382288898286898 -0.003271268202968663 -0.0006124502978770862 -9.729562972189268e-05 -0.001937695402987062 
0.000167715275760995 0.01209786885488749 -0.001465531597282846 -0.001532854333998149 -0.00266094759635021 
0.002298418560780534 0.008403349720497572 -0.00102676364441171 0.0006854737511842465 -0.004995762574855078 
-0.002130703888652385 0.003694526061375537 -0.0004387685847633154 -0.002218327517091181 0.002334805746709995 
-0.000288397595492026 -0.01089572312012119 0.003441532348438677 -0.002849672024562936 -0.005070344110469185 
0.0006208191064766113 0.009567436818641958 0.002537367660064434 -0.00162616464392011 -0.003202530939375756 
0.0001369557179629565 0.0002183385416089397 -7.898347072977535e-06 -7.634868856746054e-05 -5.88864418430682e-05 
-1.231774709142461e-05 -9.959084111520404e-06 8.351151998721327e-07 2.150553378604364e-06 1.905460326570143e-05 
0.0007392822962274127 0.0009472022975201273 -6.853809872729472e-05 -0.0002120362143610268 -0.001127890959047551 
-0.0005570409450314154 -0.0010097725292644 0.0002376875785296862 -0.001377865874574025 0.002137222026133085 
-0.0004624538610325948 0.0004724320161361168 -0.0001156868167882774 -0.0002784583810941873 0.0004450710177262749 
0.0005675612551687482 0.007176847848072387 -0.0005205719602873318 -0.0001540246240243153 -0.003033678717984158 
-0.001301415689534321 0.00973480156840394 -0.0003595946350895268 -0.001124052665137234 -0.002958348823329702 
0.0009483767859030645 -0.003001165237142954 -0.0004603239724838795 0.001745405460940172 -0.0002789236669008289 
0.0004026160155867501 0.003096116830741797 0.0007738760918224585 0.0002827274420684649 -8.261876388011303e-05 
0.0005457596339262783 -0.006097288157277872 -0.001234202723200186 0.001462680753806857 -0.0001962972731258536 
-0.005634045222296896 0.01143132656452671 -0.0002727552174120635 0.0002235451539136612 -0.005924249367779726 
-0.0007721780231552075 -0.008265704331035873 0.0001840855698479852 0.004680899226873899 -0.002357233135062729 
-1.605443648965353e-05 0.0001960164528208196 3.55252888182166e-05 -7.832243375001892e-05 6.268945101525973e-05 
6.271179913459774e-06 1.132795523202427e-06 3.283765508262903e-06 -3.916130449801941e-06 -8.279079638136139e-06 
-0.0004148210418263786 6.938751797353718e-05 -0.0001676211554019907 0.0001417903331384514 0.0007510974030716196 
0.0003231386883582107 -0.007360964442212325 -0.0002454664923782899 0.0007554803333040649 0.002616066474363107 
-0.0001371733210105433 -0.001593754424772154 -0.0002483900579029222 0.0003592961121483099 0.0006722650147081666 
0.000506916975891972 0.0001546145577693808 -0.0001596153766568953 0.0007283421095526482 -0.0007191245028029944 
-0.0005876851748383335 0.007605580456615549 -0.0006690556442165772 -0.0008395650432775842 -0.003876451526032236 
-0.001357844031727643 -0.002507500144887248 0.0006604276562985536 0.0008791557548992824 -0.0004078621070869716 
0.001251687450314698 0.002187110935464552 -0.0001674787346816471 -0.000774285830476135 0.002605790624116501 
-0.00260953320491042 -0.004694610879028599 0.0008279084528269769 0.001653441439266978 -0.003013662967737945 
0.004394008182169601 -0.004317585233542703 0.002448426521517414 0.002601397450567109 -0.0002177116943151063 
-0.006531833378458756 0.002370946351836285 0.00211151234274432 0.0002491165253351889 -0.002038621829590649 
-3.849705508053666e-05 0.0002420095360588035 -4.221269955500659e-05 -0.0001126530441379518 0.0002198629796456561 
5.586893803889578e-06 1.711101658624796e-05 -2.505055296981913e-06 -1.206611271645154e-05 -6.824221033488682e-06 
-0.0003917440146981641 -0.0008358867612752314 0.0001158810301671829 0.0005786498094468604 0.0006204229507129297 
-0.001038454177936338 -0.008485143170001794 0.001059537161273609 -0.0006830944062199561 0.002860388006665764 
-0.0005601152121441029 -0.001757715356067809 0.0001037571486691303 -7.697559141967962e-05 0.000663690434428894 
6.245448741797302e-06 0.002918238817894451 -2.703997914124923e-05 -7.578837559361005e-06 -0.001264330248528629 
-0.0005490118180298371 0.003245930355535836 -0.0006887013161330372 0.001918758073864997 -0.003093559934736275 
-0.001144922927349272 -0.007479243565215211 0.0005255120857902448 -0.0008698300312035372 0.008321256930318148 
0.002764889492253119 0.004420446060933978 -0.0005076303700740839 -0.0003860012164117254 -0.003352017647018902 
-0.003909813448976272 -0.01189967557406978 0.001033146346722353 -0.0004838286269609652 0.01167326151910498 
0.006335555681269789 0.001227773565390144 -0.002562887225892529 -0.001559277151116641 -0.003121575621125893 
0.0003872279978562009 0.0005360360906751665 0.001558344120594734 0.0006207834029184503 0.009501858754230579 
-3.002688016192971e-05 -0.0002847570537167537 1.90025298296485e-05 2.070411709917147e-06 6.578804034379474e-05 
1.342339084093001e-06 1.348790298596956e-05 -2.090516550142797e-06 2.735912937141638e-06 -2.125532226182586e-05 
-0.0001170506977798301 -0.001116434660603689 0.0001428178667231965 -0.0002002314396257171 0.001276869958451201 
-0.000982765575655108 -0.007436115223648526 0.00120913469232968 -0.0005289160486504944 0.004854394412144733 
-0.0005795522699842203 -0.00198216622147836 0.0002499623544898155 -5.170944669654665e-05 0.001687162805631886 
0.0006753592826661206 -0.001585932442401028 8.508366722507966e-05 -0.0003750100746934973 0.001680793557141334 
-0.002264228974104934 0.002733494487314041 -0.0008644775136186698 -0.0001266326685462685 0.0005420939141990695 
-0.0009091947173454108 0.003277620186940256 0.0003426113093161921 0.0001579276200200012 -0.005570114123081543 
0.0009674484330238262 0.004141094098260902 0.0007098790221026994 -0.0008461615633344556 -0.003698400919480122 
-0.001876644613010764 -0.0008634743869944473 -0.0003672674037127424 0.001004088414746639 -0.001871711076279247 
0.003193675572183331 0.005947877143663796 0.003986123831456241 -0.004693204906560547 -0.00439734520136114 
0.006491658758416477 -0.001418365231876894 0.001164935228114831 -0.003903880398254802 0.005176817860892287 
-7.563925946909717e-05 0.0002534600742876992 7.678544190618193e-05 -3.176270237348214e-06 -0.0002257858344281376 
-1.969427276263179e-08 1.206389750741865e-05 1.576751292471831e-06 -6.520274626279966e-06 -1.099048730172474e-05 
-8.296949363046625e-05 -0.0002712090909248809 -1.084895400892982e-05 0.0003231389674914837 0.0003528708408834372 
4.65644688686529e-05 -0.001164801182513948 0.0001732376247097536 1.003875047636077e-05 0.0002928533844701881 
-0.0002494644766966058 0.0002917434830553478 -7.19785372281542e-05 6.404578029037105e-05 0.0001118171525559861 
-0.0001462652256397426 0.002131517971690558 0.0002978562105555304 -4.569702901279367e-05 -0.003170783466330173 
-0.001706125042085233 0.002856809092824754 -0.0006007434681103912 0.0004981836024289967 -0.004710353376658484 
-0.001359642527245177 0.0007906513192865074 -0.0001190912620951366 0.00123302131931846 -0.001785660383981266 
-0.0006030047157093284 0.005391028922194729 -5.221422351872139e-05 -0.001807448552311319 0.0004194706669062282 
-0.0007566383864500159 -0.004600378515775602 -6.687704852476803e-05 0.003040469341307379 -0.002205129853070973 
-0.001569424235198822 0.001810312010193244 -0.002265767898695218 0.00357396966235086 -0.004273141683009346 
0.01213163434334223 0.005932417946819617 -0.00398024885611821 0.007831738689321141 -0.004407313470917757 
0.0001224268363027303 6.456092118909673e-05 -7.433979051200467e-05 -5.547461797138251e-05 0.0002040659951092235 
-1.239288540492434e-06 5.013742758184608e-06 -3.449785632283148e-07 9.745019318963875e-07 -3.177676041643067e-06 
0.0001865588870313407 -0.0002334782306420353 -5.643742358557979e-05 -5.060774417514906e-05 0.000256666546290183 
-0.0003411278743835793 -0.001231373407532489 7.494072338544369e-05 0.0009019353375655463 -0.000368484120713383 
-0.0003785494455753326 0.0003815110540917846 -9.718100920120787e-05 0.0004281200151613199 -0.000383229461409733 
-0.0006553434983794771 0.002138949686289292 -2.087603347678232e-05 -0.0001434701337844446 -0.0009740317572405658 
-2.716923460904169e-07 -0.00102311513259617 -0.0001114529136790165 0.0005755876445943762 -0.002938541103925967 
1.075668201724543e-05 2.643704142117315e-05 2.717335981611046e-05 -3.142937065777577e-05 -0.0001007130385756795 
-8.512967655418746e-06 0.0001209809033927486 -2.0042588713297e-05 2.944349675857513e-05 -9.980184676282959e-05 
1.926970626534618e-05 -9.454387058467739e-05 4.72159751111698e-05 -6.08727947656545e-05 -9.111990020953223e-07 
-0.001963561666684152 0.01515450694031312 0.001957803630610476 -0.003025588003924318 -0.009093249414766238 
-0.0007475233416380409 -0.00593413784127384 -0.001333785303741001 0.006338994597277384 0.01292637109904224 
3.177249728488447e-06 -4.047252169014696e-06 -6.527468970216887e-07 4.809316281159085e-07 1.038644262746474e-06 
5.253499337454427e-08 2.408875241362808e-07 -2.385169577849794e-08 4.546665028846553e-08 -6.918780796899257e-08 
1.930818236539692e-06 -1.722048359845136e-05 1.291369549067089e-06 -2.536629577360955e-06 5.366193650470075e-06 
2.374668437478968e-07 -2.867129873503484e-06 8.073689803879908e-07 -6.365000181492738e-07 1.621580185339724e-06 
9.883569620547417e-07 -3.366685379466843e-05 8.659488433215973e-06 -1.083334226170057e-05 2.343183961699387e-05 
0.0001223563792055109 0.003347466254677545 -3.845529223326033e-05 0.0002600954212764444 -0.004801903203599913 
-0.001036499804630802 0.006702809070858556 -0.002881868165932882 -0.0002346731701295205 -0.002889048669765653 
-2.373148211472913e-05 -1.381259896735351e-05 1.35652457904088e-05 2.510001477734571e-05 -4.550963687199189e-06 
2.200843961521343e-05 -0.0001157721679138458 -5.116920062325636e-06 -1.166555642227086e-06 1.603300974034226e-05 
-4.573986456667408e-05 0.0001019594519567838 1.868219130211544e-05 2.626652356791332e-05 -2.058392213980191e-05 
0.001035784175246958 0.003145350557263363 0.001349860644690324 0.0003346391402519304 -0.001299044887397842 
0.001070628630664576 0.006365250793207725 -0.00461796991731741 -0.003048882623938983 -0.003895289526049827 
-2.070514732384814e-07 -5.18186321332736e-06 5.049366224914918e-07 -6.571735811171998e-07 4.612849284334276e-06 
6.113112128406929e-08 -2.126910498638503e-07 -1.393797418005867e-09 -7.31374537153359e-08 2.720563608862577e-07 
-3.681337326214078e-06 3.029672945459337e-06 1.008660867602582e-06 3.394902517248085e-06 -7.102811227931807e-06 
-3.171075202100857e-07 -9.928956142743237e-07 5.623172540992181e-07 5.282085824104363e-07 2.006871203562563e-07 
-1.157627882780188e-05 5.107240228266057e-07 5.069112682965803e-06 1.139849659069131e-05 6.096360675857595e-07 
3.232391463414513e-05 -0.002761540216954615 0.0002912869292293546 0.0001401697218167974 0.0006410183219450023 
0.0004018014565952117 0.01426917435339788 -0.001600703934445658 -0.001943531206484001 -0.005297139997675279 
0.002187071413535979 -0.01927908160575422 -0.002239040935854569 0.004204254326299654 0.008118839377921686 
0.0004329992738262396 -0.006985052521100824 0.00163577092696569 -0.002211882243801378 0.002462352096276084 
0.001754064182790383 -0.01229403980812811 -0.003874800965199682 0.006416111002444208 0.005656499399932671 
0.000628634551190246 -0.005611189064779059 0.002262267550871376 -0.001545535302396264 0.00747655500665552 
0.009394789291147083 0.003817303964657112 0.002621274721386619 -0.002752044073773973 -0.003720281735298198 
5.117067797549404e-05 -0.0001534033535712564 -5.524107116610552e-05 -5.148740315159005e-05 0.0001101358856122846 
1.328308372615632e-05 -4.837978104137278e-07 -4.192194738187296e-06 3.290215392654526e-06 -4.422169308609627e-07 
-0.0005494594062780696 -0.0001536960712013389 0.0002098953826349825 -0.0001016669052481909 0.0002319808687511797 
0.0008933297990185492 -0.0005135998411760582 -0.0005103757341257163 -0.001484980629334989 -0.0006105602709195839 
0.0005254703420501045 -0.007345088409174328 0.002193090310308041 0.00025742299470585 0.003508898963202788 
-3.60154983954084e-05 -0.002308940313057847 -9.569607942888116e-05 0.0003644987800942499 0.001012583013075038 
-0.003804110827641429 0.01942491850262369 -0.003764879564119154 -0.002993455834340103 -0.0007344651609809286 
